{
  "numHiddens": 20,
  "bias_H": {
    "data": "-0.6744114 -1.092758 -0.10823847 0.26600614 -0.6683107 -0.49576968 0.7286375 0.40704927 -1.1758167 0.7278818 0.5888686 0.15231377 0.61524826 -0.25980616 -0.40152466 0.07563587 0.7148771 -0.3824225 0.61940086 0.5036855 ",
    "rows": 20,
    "cols": 1
  },
  "numInputs": 16,
  "weights_IH": {
    "data": "-0.5013508 -0.64252853 -1.2815713 0.7628151 -0.027165838 0.7010116 -0.05396705 -0.53212106 0.7644019 1.0849086 0.20684756 1.2823341 0.4262662 0.5180842 -0.2063247 -0.5091741 -0.7092927 0.40681165 1.7877964 -1.4868809 2.7301435 -0.29807293 -0.7410881 -0.18746708 0.56660855 0.46125373 0.58382094 0.14060861 0.3309727 1.5200247 0.15850413 -0.68958604 1.4625412 -0.764932 -0.60257584 1.1425087 0.91244715 -0.46564382 0.32213733 -0.05709961 1.1083809 0.010294467 -0.06825239 -0.35267708 -0.71438915 -1.0967624 0.025616877 -0.4537736 0.9661095 -0.78491104 0.5242551 -0.47769496 0.3967312 -1.0841719 0.37496296 -1.0537446 0.5353638 1.1347419 -0.51297265 0.31723154 -1.2349699 -0.8204681 -0.7134761 -1.507745 1.0322602 0.6109859 0.1898727 -0.72316813 0.37936255 -0.61388206 1.3166592 0.586847 0.5193735 -0.402879 0.68435335 -0.10212194 -0.48351324 0.2476925 -0.81841356 0.75454277 -1.1015432 -0.57899535 1.9419396 0.12174879 -1.0650768 1.0815523 -0.93954563 0.07860609 -0.1995729 0.5547792 -1.3742021 -1.6756539 -0.9739556 1.5955852 0.18751703 0.62403727 -0.27290663 1.4165033 -1.0855771 0.009888455 0.36629754 -0.32542074 -0.5704753 0.5283651 1.5139899 -2.5459611 0.07485469 -0.9703469 -0.6037903 -0.92473394 -1.6021101 0.18348618 -0.058420345 0.87670857 -0.49725455 -1.138426 0.25581968 0.9755213 0.10245491 -1.0179833 0.4593955 0.7494014 0.62663895 0.7042596 -0.19398795 1.0177604 -0.35358265 0.35000473 1.046654 -0.7969556 -0.4571205 -0.55578643 0.93874633 -0.24373662 -0.655349 0.74695027 -1.1128613 0.75933313 -0.30469936 0.65915895 -0.9014291 -1.1044103 0.58930963 0.19170304 -0.7662904 -0.6562331 0.19866167 -1.6685227 -2.8461845 1.2899237 -1.2319624 0.84603167 0.21825749 0.8564278 0.17687847 -1.3287174 -0.35622692 -0.88721424 2.1247668 0.50448376 -1.0506119 1.2982696 -0.70501757 0.6379502 0.50747305 0.34007204 0.34208798 -0.30824354 -0.067994334 -0.84305847 -1.4774457 1.3651023 0.7297979 -0.7561475 -0.40671057 -0.17891555 0.081453115 -2.2562249 1.0139378 -0.33358562 -0.7413062 1.2598445 -0.6000407 0.21292624 -0.5204414 -0.02385012 -1.2939771 -0.43943685 1.0800811 -0.098865956 1.345841 0.88487464 0.31207204 1.7618493 -0.20492275 0.14669147 -0.74432814 0.5374074 1.3260493 0.14153917 0.8664447 -1.1381545 0.85731924 -0.09945 0.033375062 -0.94439197 -0.6235525 0.20265427 -1.1868037 -0.0042328015 -1.2063813 0.17689486 0.27452788 -0.1383826 0.238974 0.17064495 0.3296914 -0.410254 0.42767903 -2.2152596 0.14985313 0.2890608 -1.070896 -0.25476393 -0.43886945 -0.28468704 0.76126236 1.3910562 -1.6364549 0.5589516 -0.67582536 -0.57348484 -0.05702673 1.1187516 -1.2391945 0.816376 -0.35550913 0.9943136 -0.6605462 -0.49617422 -1.0281597 0.070658505 -0.6012913 1.0799967 0.60658634 0.39663967 0.43166432 -0.12256245 0.9098723 0.85987145 0.6647254 0.48090416 -0.2594206 1.5162474 0.84013647 0.46936843 -1.0322454 1.1736169 2.2052302 -0.18903232 0.52528846 -1.0910027 -1.5365542 -1.5846338 -0.8602956 -0.8784907 0.5141393 0.12780793 0.6681775 0.365973 2.1304827 0.90628225 -0.37382537 0.6713374 1.57405 -0.6032791 0.19421975 -0.036605008 -0.4274162 0.7806078 1.273568 -0.7149371 -0.20688134 -0.010501541 -1.4753418 0.1980738 -0.11650543 0.43149385 -0.320108 1.2582065 -1.1895299 -1.4010634 -0.7400366 -0.2713739 1.1897389 -1.2144071 -0.109568164 -0.62578845 0.6332643 1.3497894 -0.6685919 0.017292827 -0.4523586 -0.19506253 -0.37415555 1.8376809 0.52738225 -0.1133425 0.40034947 -1.2188877 -0.36081603 -0.43774968 0.31151137 0.5133324 -0.34990868 0.19319248 -0.5702717 -0.17539099 -0.9234362 -0.10376267 ",
    "rows": 20,
    "cols": 16
  },
  "bias_O": {
    "data": "1.5069048 -0.15559137 1.0219945 -0.70546836 ",
    "rows": 4,
    "cols": 1
  },
  "weights_HO": {
    "data": "1.149648 1.5472916 0.7624904 -0.09757388 0.23565394 1.3654429 -0.25414348 -0.21495886 -1.5303676 0.731012 0.55225646 1.6303114 0.3667779 -0.58787084 -1.0698239 0.04718379 0.27713084 -0.78994614 -0.7492728 0.3112446 -0.14202331 2.0373142 0.4654507 -0.39054367 -0.6104299 -0.4270562 -0.43246722 -0.45813274 -1.352037 -1.3962944 0.0075733475 -1.9791453 0.70741755 0.19889738 0.30938733 -0.5815631 -0.04298681 -0.289837 -0.15732533 -1.5675471 0.2462399 -0.24114408 -1.51732 -0.6471332 -0.38268012 0.2314227 1.1078802 -1.6781383 0.19101694 -0.6002347 -0.34255922 0.33273795 -0.3418913 -0.99157774 -0.54814905 0.83186847 0.13577726 0.11529288 -0.59335357 -0.37570485 -0.17990306 -1.2403988 -1.041426 -0.2938217 1.3809067 -0.7944213 1.1160159 -0.21512951 1.450271 1.5623847 1.014728 0.0789692 0.9104015 0.42687926 0.26125953 0.87482965 0.33661944 -0.96824753 0.34974518 -0.0763898 ",
    "rows": 4,
    "cols": 20
  },
  "numOutputs": 4
}