{
  "numHiddens": 20,
  "bias_H": {
    "data": "-1.8255349 3.1937704 -1.9755986 0.49848384 -0.19664252 -1.7891903 2.626413 1.1429242 0.1464417 -1.9491938 2.4540322 3.281826 -2.4422944 -0.09197701 -1.5284239 -1.601136 0.1794185 -3.5754116 -2.1606102 -0.6797252 ",
    "rows": 20,
    "cols": 1
  },
  "numInputs": 16,
  "weights_IH": {
    "data": "3.0083265 0.56093276 1.6196152 -4.8239236 -2.0854661 0.6328702 -0.78061193 2.8465335 3.4804573 0.12567027 4.6683555 -4.821633 3.851482 1.1860965 2.7383468 -0.65268457 -3.9689548 -2.8174918 -2.0489323 0.1849227 -1.3658726 1.5416918 4.22801 -2.3094177 8.572918 -2.4913955 -3.8843386 2.4925034 -2.1319973 -2.6124575 -2.7382803 -1.4695053 -3.0925412 -2.4193273 -1.0076545 2.4220655 0.012587912 4.8356237 3.7570202 0.270614 -0.22992983 0.8877117 -3.079634 -1.5916989 2.6095922 -3.9715855 3.6226144 -1.4483556 -4.728437 -0.7178829 -3.6013718 -2.4797308 1.8529453 1.3727515 -0.41250458 -1.0052133 -0.97024965 -3.2595868 -1.126017 -6.253772 3.0466979 5.0076046 -0.79925007 1.9071505 -3.6003313 0.29821074 3.6888351 -3.3351617 0.90429455 7.093949 -4.087589 -3.9945893 -2.9230995 -2.7163212 0.76463306 -1.0497166 0.93870246 2.681438 1.1836686 0.09310252 2.4307013 -2.2415686 1.5942975 -0.41209608 0.8123822 2.0595164 1.5992019 6.2282248 -4.8461695 0.881257 -2.1760116 -1.4624817 -3.3787656 -6.1757636 5.5223556 -2.791378 0.8441844 -2.9138267 -2.5477333 2.79067 -1.3697163 3.7566504 -0.43451786 1.797432 -2.84783 1.6125684 -0.45984045 -3.9242883 7.401545 0.59426665 -0.41013044 0.5858731 0.822721 -1.3413796 -3.3383408 -3.411694 -0.2553241 1.0851575 -1.9925209 -4.5955296 -0.16289331 2.34208 -0.86151254 -1.0747249 -0.9996891 1.6161438 1.557602 1.0517007 -0.95229954 3.812154 4.4495096 -1.1173862 -2.5324883 -1.0043555 -1.1356158 -0.690501 -2.28267 2.2196314 0.51112664 2.9885132 -3.8842614 -3.8744047 -3.1123831 -1.5226581 -2.872695 -4.880725 1.0552415 4.2964163 0.3324503 -2.7820625 2.7011466 -0.373673 -5.882601 0.11878526 -7.4629273 2.6157906 3.8184316 -1.3665314 -0.7519937 1.4881701 -0.3157094 2.582576 1.8547096 0.06577703 0.21660337 0.21450463 1.9768872 -6.00841 -0.39563096 2.4867432 6.163198 -1.4627401 3.4346669 -2.2203093 4.1551065 2.888378 2.014958 -0.242077 3.4654183 -2.273925 -1.1475661 3.5916107 -6.3075104 -1.0372452 6.3395605 2.755036 -0.84724987 2.1662083 1.5375173 -2.3335261 1.047433 -2.2582803 -2.3093607 -3.9420724 2.8774343 -1.623842 0.69929147 5.586988 -2.497504 4.0350122 0.18297096 -0.7119694 -2.08187 -1.2930045 2.304307 1.2615641 -2.4083943 -0.4592778 0.53529024 3.5245297 1.5887762 1.7622745 2.949895 1.2068219 -10.164655 -2.3997262 -1.2631233 -0.4746603 3.396403 1.6920354 -7.0017543 0.4157074 -0.48574188 -6.499817 -5.2357306 -8.143664 3.5555184 -5.133212 -4.446538 -1.1008724 0.048476875 -0.57778263 -4.266828 -0.16979194 1.2829769 -3.6666706 1.5231256 -1.9624647 4.2276793 2.5709767 -1.547049 -2.1284404 -2.0127826 -0.59009206 -5.540934 -0.29111707 -1.8484353 0.3875292 -0.046303794 0.19235332 5.2896833 6.0655026 -1.9425437 -2.3739147 2.2929273 -4.2334976 -0.095771745 -3.40914 1.072375 0.25303394 -3.6794581 -2.0676515 2.9957771 8.349772 -2.3418732 -2.71279 0.97900265 7.2269793 -4.5521073 1.3685275 2.3940623 -0.28780454 -2.9923265 -3.0267785 3.8288789 -0.05744198 4.858468 -2.4343107 0.023713782 1.3805314 -1.9794191 0.4345045 -4.6914554 0.40241775 1.8584135 -0.57367665 -2.6781275 1.7481563 -0.9297462 0.38663602 -0.14898911 2.2415214 1.6601807 -4.703201 1.9544737 -2.4503949 -6.366045 0.536256 -1.3688579 4.041133 -1.0646802 -1.1026095 0.09744546 1.0564023 -3.8632321 6.5569377 2.1106207 -4.256898 1.9934716 3.3197815 -1.5326265 1.9155536 -3.423788 0.36945927 -1.4939637 -3.0983856 1.0708976 0.40923697 -4.5223346 5.26474 ",
    "rows": 20,
    "cols": 16
  },
  "bias_O": {
    "data": "4.4916587 -2.5413437 -0.10264548 -2.076038 ",
    "rows": 4,
    "cols": 1
  },
  "weights_HO": {
    "data": "-0.30402225 1.6618184 4.765048 -4.419154 -0.30144492 3.564632 2.1251273 -4.20402 1.871818 -1.0260423 -1.5323948 -1.57969 3.2142959 1.7206442 3.4497619 -0.21123078 1.8535022 -2.476232 4.4330564 -2.918125 0.22391492 -0.24554236 -0.74650615 7.094406 4.3644094 0.63005304 -2.5870092 -0.51678103 -1.5287795 1.6561742 -1.3092101 -2.24787 -4.8030095 -2.398381 -0.018090665 -3.440973 0.8382403 0.15336268 -2.0268009 1.2314465 2.4712691 -0.66321176 -2.485232 3.1780262 6.428784 -1.4345918 1.7419155 2.2040024 -0.91626596 -2.6435986 2.402341 0.21311462 -0.48866338 -3.6210382 -0.51525044 -3.7322924 -1.5739723 0.48909432 -0.20136495 -1.2091625 0.5564726 -1.3737878 -0.0065684766 0.4331744 -4.8890405 -0.20667632 1.6123772 -2.1739998 3.5976987 8.908141 -0.10641499 -6.640376 6.6314673 0.47656602 -1.5555351 -3.7944643 -2.3692358 -2.5321922 -3.2609522 -0.65010625 ",
    "rows": 4,
    "cols": 20
  },
  "numOutputs": 4
}