{
  "numHiddens": 20,
  "bias_H": {
    "data": "-0.10245535 0.23090056 -0.009119846 -0.77969706 -1.0905507 0.037814945 0.92793685 0.6732513 0.32873303 0.063187554 0.9628156 1.386436 0.21201518 0.17609559 -0.26243627 -0.40145832 0.2131007 -0.43529776 0.21864276 -0.17702834 ",
    "rows": 20,
    "cols": 1
  },
  "numInputs": 16,
  "weights_IH": {
    "data": "-1.5128319 0.04415701 0.66773325 -0.099425 -0.4653594 -0.49277014 1.2906303 1.4469937 -1.8108345 -0.21204345 0.56436247 -0.42275694 -0.9400063 -0.38635367 0.6033472 -0.011016777 1.7062211 -0.108532965 0.5982792 0.057974093 -0.5828442 0.16311455 2.3054636 0.14967188 -0.3139776 2.0575774 -0.85436785 0.4285072 -1.064888 1.2071552 1.0652856 0.58298844 -1.3119798 0.6834871 1.2515115 0.52670646 -7.4340403E-4 -0.079664364 0.92661214 0.49924982 -1.0832866 0.06274033 -0.2197569 0.33256087 -0.2935804 0.9019789 -0.26569524 2.1406837 -0.37058264 -0.008670827 -1.666964 -1.4569781 1.1195847 0.37584156 -1.0634304 -1.490593 0.29604873 -0.13245347 1.5941871 0.10710494 -0.3727309 -0.5781554 0.5270993 -1.3610822 -1.4446261 -1.0214491 -0.17428884 0.14395519 0.55220306 -0.35725403 1.1599053 -1.0080655 0.04425533 0.9742654 1.8194556 1.4748673 1.042228 0.4100954 0.6733504 1.1346712 -0.6621479 -1.2624344 -0.17581512 0.087827675 -0.7316016 -0.26955733 1.4132524 -0.49979657 -0.42483968 2.065091 1.1315316 -0.43499023 -1.1017301 1.4074589 0.3239799 0.1244677 -1.5969356 0.86443955 -0.51265895 0.1019628 0.0718361 -0.48495144 -0.8862389 -0.50118744 0.089058444 0.15270431 -1.6133887 -0.2340535 1.9931127 -0.25318468 0.81399935 0.37491074 0.7120151 -1.0424595 -1.1711655 1.3592316 -0.47409555 0.39188635 0.7164212 1.4258621 -0.50735223 -0.6632368 0.31421453 -0.82950246 -1.2907395 1.3160822 -1.8019205 0.9214519 -0.3645528 0.5773452 0.20407212 -0.28526765 1.5511881 -0.53082573 0.7717889 -0.5357223 1.0837699 -0.64684725 -0.6605686 0.5916362 -0.40290037 -0.031555474 -1.7273155 1.1257848 -0.54416966 0.036874097 -2.1283684 0.7813624 -0.03499415 -0.37605327 1.3161669 0.36091772 0.40356484 -0.87444264 -1.6239438 -0.71901137 0.88447654 -0.79792124 -1.3618983 1.6207436 0.022932485 0.97527015 -0.6319376 -1.5930624 0.1269937 -0.2710867 -0.0028116181 -0.8311124 -0.9272445 -0.4451713 2.054763 0.14798129 1.8627862 -0.26076123 0.24401553 1.4577161 1.8888298 -0.13523602 -0.64522606 1.1304307 -0.06722608 -0.36838567 1.2465743 1.341242 1.2988236 -0.15976891 -1.8146139 -1.4695054 -0.23453113 -0.08951698 0.014776394 -0.63391054 0.2679207 -0.054514028 0.13024278 -0.15733318 0.52518946 0.51103455 0.23123632 1.1892953 -0.019529153 -1.5155554 0.64888054 -0.8158951 0.6436039 0.22503588 0.6893751 -0.5099815 1.4078006 0.99075663 -1.6846732 -0.27123624 0.18809652 -0.8982163 -0.9602118 -1.5819268 0.6272158 0.30768955 -1.050047 -1.0768299 -0.8768493 0.7207027 1.0207744 -0.8145555 -0.61468863 -0.9845058 1.6917411 2.0162485 -0.8670136 -1.7133788 0.18922433 -0.74496806 -0.81075895 0.007149726 -0.647112 1.3338463 0.32870188 1.2610468 -0.69963545 -0.90161526 0.704498 -0.056710057 0.24874792 -0.92659664 -0.4747169 1.3375784 0.9042296 0.6084941 -0.15609267 -1.1691043 0.25099862 -0.057813525 0.508353 1.0209465 -0.945166 -0.7463471 -0.5672636 -0.019107461 -0.3830831 -1.1739047 0.69984275 0.615051 -0.18309516 0.16440597 1.0468124 0.7612249 1.5709574 -0.021294687 0.8780536 -0.14740436 2.4223566 -0.4458293 0.8948403 -1.6821216 -0.31702793 0.41285908 -0.24401404 0.88201344 -0.5121062 -0.35368115 -1.1331921 -1.6750591 -0.11405097 0.97023296 -0.78624934 -0.46753013 0.8796153 -1.1196073 0.1650723 0.6284693 -1.34123 -0.117439434 -0.37528887 -1.0141515 0.21303484 -0.9244971 0.15858912 -1.4581685 -0.6222808 -1.0212239 -0.08410247 -0.33283648 -0.9251798 -1.0345693 -0.6009864 0.7020351 1.3909596 -1.0439736 0.92682934 -0.99346286 -0.16386837 0.7724341 -0.57065034 -1.4680451 0.4694667 -1.0699161 -0.41548064 0.13871248 -0.06284992 -0.6635794 ",
    "rows": 20,
    "cols": 16
  },
  "bias_O": {
    "data": "-0.042669415 0.115240894 0.19255641 -1.337569 ",
    "rows": 4,
    "cols": 1
  },
  "weights_HO": {
    "data": "1.0995585 -0.4460662 -0.55253786 -2.174415 -0.23819362 1.4274309 -0.5813865 0.44657326 -0.5970357 -0.955903 0.62455785 -0.4905098 0.53168625 1.2834281 -0.6106852 -1.5423375 0.38621652 -0.67891806 -1.2071106 1.2078712 1.150755 -0.043202344 -0.12376121 -1.4676892 -0.6586346 0.58538485 0.1899505 -1.9022384 0.20741396 0.7495905 -0.32783553 0.2774628 -0.016153783 0.104581445 0.6321081 -0.5201935 -1.9179955 0.9263863 0.6057437 0.57489413 1.1144106 0.059655357 -0.41771895 -0.1749095 -0.16676742 -1.232911 -1.2064993 0.91600734 0.2087168 0.5598412 0.34501505 -0.02129329 0.02302207 1.1260699 0.34857255 -0.5507698 2.3017278 0.5724341 -0.63115764 0.01821521 -0.273957 -0.12392172 -0.7880065 0.30793273 0.42089725 -0.4291958 0.7681867 -0.37939322 -0.56618613 -0.6693196 0.36446464 -0.34167767 -0.3365267 0.24176705 1.1819699 -1.5109688 0.28563148 -1.0388846 1.1251245 -1.4247805 ",
    "rows": 4,
    "cols": 20
  },
  "numOutputs": 4
}