{
  "numHiddens": 20,
  "bias_H": {
    "data": "-1.5270395 0.3529948 -0.70547557 0.10676496 1.143313 -1.2484897 1.8902456 -0.41010684 1.2897918 -2.2832985 0.670489 -0.80986214 -1.9804497 -3.063951 1.517528 -0.6874772 1.6576414 0.962175 -0.6125269 1.6970781 ",
    "rows": 20,
    "cols": 1
  },
  "numInputs": 16,
  "weights_IH": {
    "data": "0.50689465 0.4633961 2.0032284 0.8505383 0.44550872 0.49254093 0.14454938 0.6562273 -0.27695793 1.7139516 1.3427447 -0.45865762 0.47363815 2.2016354 -0.17219245 0.6143921 -1.7821518 0.067579366 1.654036 -0.9787333 0.5015731 1.4358253 0.51905096 0.31258613 0.99692655 1.6769924 -0.92493194 -0.37011665 1.2659395 0.4676038 -0.9973073 0.12760366 0.07527695 -0.42877996 1.8461528 -2.4690878 1.5836626 -0.1743596 0.8950127 -1.8153399 -0.77894944 -1.3059803 -0.35720125 -0.8340996 -1.8202724 -2.1129065 1.1055944 0.31548494 0.72649735 -0.71503425 0.8537487 1.1495966 -0.8683576 -1.7204535 1.1618947 -2.52767 -0.02912905 0.5178718 -1.0544041 3.0431132 0.97938335 -0.9631673 -0.34623545 -1.2832044 -0.6132374 -0.5345056 2.8551104 -0.45144108 -2.3048189 -0.13252549 -1.0774739 0.53493065 -0.6664216 -0.72727484 -0.3972538 -0.66817397 -0.20307976 -0.15585688 2.8083777 -1.0871818 -0.5003111 0.7152996 0.60859615 -0.50906193 -1.6893626 -1.6286535 -1.3822644 -0.22141798 -2.1943192 -0.751599 0.45722643 -1.2002845 0.19038594 -1.6655698 -1.9420488 0.8462513 -1.3979211 0.9811679 -0.8363352 0.8578192 -1.152751 -0.55799234 2.0157938 -0.61842215 -0.897169 0.62298864 -1.1039276 0.9787956 -0.70712537 -0.9258814 -0.09615098 -0.25916314 0.60867465 -1.6166726 -1.6404879 0.9274022 -0.9008093 -0.6064402 1.5229481 -2.0575593 2.6904469 0.01386519 0.7595489 0.4383344 -0.35267907 -0.29526597 0.9722501 -0.06756367 1.137492 1.0726602 -0.6315564 1.9141368 1.4975401 0.88293326 -1.0012734 -2.5213208 -0.28459728 0.22430713 1.2850711 -1.3578949 -0.7670074 -0.25489104 -0.4293083 1.6781884 1.2453165 -0.96055615 0.716517 -0.53099984 0.3791789 0.71016985 1.1280028 -0.7452932 -1.3829479 0.36517158 0.42156875 -0.011991225 0.32487017 1.5627931 -0.4758827 1.9681953 -0.40899974 -1.0562015 0.78513277 1.3343118 0.15454683 -0.40664464 -0.08871698 -0.62913877 2.2956889 -2.1375294 -0.20510115 -2.6460285 1.397882 -1.6352293 -2.9447782 0.8330729 0.21251549 0.04282478 -1.4115255 0.41601408 0.8240347 -0.046355203 0.94042826 -0.63809645 1.292057 -2.7098365 2.0173087 0.53818923 -0.6946885 -1.0744321 -1.1609991 1.0928186 2.3622465 -1.1005113 0.36086076 -0.71854347 -1.2925122 1.5791147 -0.06845658 -1.8362163 1.7463015 0.35222638 -0.58283186 -0.7972865 -2.3197892 0.9648133 2.8956947 -1.5897074 0.8525906 1.2533737 2.0360057 -2.2703745 -0.069343746 -0.10614915 -1.7119268 -1.0637975 -0.32878384 0.9307289 -0.56502384 0.5004916 1.8560135 -0.60095847 -0.9730717 -0.54852176 0.4976193 1.227382 1.6716143 -0.9066764 2.301464 -1.0802207 0.08313471 0.25818884 0.9775392 -2.1937945 -1.2874124 0.43410236 1.26801 0.24094063 -2.3044894 2.7548306 -0.68872184 3.2370126 2.3722427 0.04026131 -0.8640928 -0.4658659 -1.4045032 -2.2556005 0.82289827 0.9884535 -1.9192591 -0.8497231 0.04010108 -0.056566227 -0.47844934 0.8779106 2.391295 -0.09096197 1.0887977 0.58058673 0.74410486 -2.061611 -0.5301969 -2.8602207 1.2058817 0.8941209 1.8176374 1.4938397 2.9982789 1.7032388 -0.09792331 1.0726819 -1.2384466 0.37541428 1.1695203 0.2591179 -2.5721288 1.6940471 -1.7163587 -0.08247872 -0.37371963 -0.17456278 1.2487406 0.029052487 -2.7327938 -1.1009821 -0.48814362 0.789343 -2.3211944 1.0123025 0.113035575 1.0342999 -0.39568132 0.5434776 1.6562155 1.1927717 1.6715785 -1.6557664 -0.6170773 1.0061096 -1.0469913 2.0432305 0.40604538 -1.4677186 -1.2582858 -0.55327135 -2.7613587 0.51985383 -0.052300602 -0.44572327 -0.6934274 0.17114887 -1.5441595 -1.6743846 -0.9051711 -0.48111117 -1.336475 0.5898155 -1.3139181 -0.037723243 ",
    "rows": 20,
    "cols": 16
  },
  "bias_O": {
    "data": "2.071378 -1.1032566 -0.13287197 -0.746626 ",
    "rows": 4,
    "cols": 1
  },
  "weights_HO": {
    "data": "-0.6533521 0.5572096 -1.8894641 1.1554066 0.5875554 -0.69078195 3.5557027 -1.0556519 1.0612373 -0.2907583 0.8375261 -1.4326557 -1.099542 0.003105238 -0.16490938 -0.17923415 0.9641124 0.2896383 0.4839748 -0.86572653 1.0910687 -0.21495365 -2.6322968 -0.4920168 4.203009 1.2683738 0.6035929 1.3924909 0.15047845 2.065061 -2.0220275 2.2825146 0.2455309 0.47429776 -0.612069 -2.9556496 -1.2313297 -1.3646258 1.7637448 -0.46039248 0.8243344 -0.3593309 1.6097366 -1.2297392 -1.0780983 -2.6440225 1.0306611 -0.8645261 -0.91394377 -0.9064458 0.21237019 -1.7501913 -0.50145787 0.3706463 3.4138086 -0.8484254 -1.1691346 0.3069761 -0.27733895 2.3182805 1.0997732 -1.164353 -0.9421657 2.5140471 1.4092708 0.44721568 -0.5282052 -0.10616372 2.1827908 -1.2379547 -0.017718896 1.0430577 -0.74652827 -1.4880491 0.016943038 0.14822377 -0.41319278 -1.9165537 2.0617738 -0.15773383 ",
    "rows": 4,
    "cols": 20
  },
  "numOutputs": 4
}