{
  "numHiddens": 20,
  "bias_H": {
    "data": "-0.16303563 -0.51543933 -2.0142639 -1.026578 0.38729206 0.08452348 -0.89238065 0.7025584 -1.4885987 0.18785599 -1.3269871 -0.2917211 -1.7793092 0.86302507 -0.9423365 0.70414567 1.1126758 0.41118988 -0.15953577 2.6330278 ",
    "rows": 20,
    "cols": 1
  },
  "numInputs": 16,
  "weights_IH": {
    "data": "-1.6633117 1.9916413 0.22139102 -0.20420262 1.1471229 1.3306956 0.8505864 0.3267502 0.3843132 -0.6051798 0.34898853 -0.50650454 -0.09964208 0.004623587 -1.5964661 0.77159166 0.3776818 2.435967 -1.3538558 0.34506524 -1.697885 1.9833822 0.16306745 -0.63390875 0.21167672 -1.1589398 0.31256726 1.0614517 0.41233537 -0.6711266 0.43806824 -0.2339293 0.42997548 -0.6472012 -0.5837458 0.5434003 -0.059625663 -2.1940374 -0.7578321 0.93732554 0.29522747 0.7157351 1.0812235 -0.5819342 -1.2938111 -2.8430045 -1.4318926 0.15439264 1.0945537 -0.05534801 0.8755946 0.09040634 0.8413694 1.8439515 -0.14146645 0.71770656 2.0646796 -0.37418413 1.8067291 0.29579398 0.2601053 -1.9733225 -1.7052405 0.8683908 0.7603915 -0.29818454 -0.3842246 1.0226825 0.030936316 -2.1368601 -0.79982394 0.63668334 -0.7371244 0.51895416 1.0292072 0.8808387 -1.2590562 0.7118044 0.4557629 0.4797082 -0.4321314 -1.340551 -1.5899621 -0.43698195 0.030158427 -0.18911925 1.0630153 0.020540748 -0.6185206 -1.070551 0.103343055 -1.0389379 -0.17357609 -0.772489 1.9570619 -0.3587621 -0.07031956 -1.3983325 1.655544 0.71699554 -1.6013399 -0.010877967 -1.450047 0.18491629 0.14433706 0.91435856 -1.4857866 1.5538759 0.6644303 -1.7176148 -0.43312442 -0.74334383 0.019560914 0.41062218 -0.6405662 0.17402267 -0.21107712 0.9802386 0.100020036 0.5913084 0.13492619 0.929896 0.73657453 -0.88178396 -1.6535506 -0.21644887 0.30923545 -0.98547536 -0.30971235 -0.9879318 -1.5029587 0.63455045 0.16009311 -0.5419646 -0.30578053 0.35529962 0.81743425 0.82013243 1.4097592 -1.0651476 1.6029856 -2.5332854 -2.385856 0.54794276 0.6718707 2.3108053 -1.198987 -1.2134707 -0.840259 1.0012038 -1.2182593 0.74506134 -0.20231934 0.23175505 -0.5878034 0.3596664 -0.39326125 2.0869272 -1.2697058 0.44804603 0.21779348 -0.60799015 0.9057349 2.0653875 -0.11040537 0.624689 -0.88882345 0.69109005 -1.5692595 -0.42321467 -0.01205725 0.6610913 -0.54437923 1.6338632 0.44046345 -0.82177514 -0.17034854 1.3995922 -0.18850169 -0.092019975 -0.9100238 0.39881086 -0.24723567 0.64770323 -0.31197506 1.717836 -0.12515916 -0.24961251 0.65473896 -0.36956522 0.1074211 0.68024534 -2.9845226 -0.21100423 -1.1200728 1.855893 0.17683782 0.22600883 1.3552078 -0.68830055 0.38068643 0.28398153 1.7981037 1.1453397 -0.32378438 -0.54623115 -0.8969804 0.5450902 1.474508 -2.431739 1.386169 -1.6724863 0.93810576 -0.4417234 -0.10952868 0.24209185 -0.9329222 2.1683033 -0.28658727 1.1604395 0.20671777 -0.25663826 0.14994498 0.7115427 -1.4347031 -0.16111122 -0.27117026 0.28258607 0.3265455 1.3059027 1.9409473 0.59739614 -1.354974 0.07142804 -0.38575184 0.972482 0.8044528 -0.16938007 -0.47190335 -0.61983097 -0.73646915 0.7988335 1.7036947 -0.024503574 -0.726001 1.1636847 0.14779443 -0.1002558 1.0042477 1.2284721 -0.07304454 -0.12354397 -1.018039 -1.6099751 -1.0835991 2.1021779 -0.7281811 -2.024149 0.016410545 0.417538 -0.6811106 0.538487 0.88593256 0.33974242 -0.5678033 -1.2077672 0.89417684 0.3239818 1.006193 2.869598 -0.4517397 -0.5558255 0.2837317 -0.88004416 1.4115851 0.059696052 -0.08110197 -0.1717513 -0.47652358 -0.04692643 -0.72994 -0.7615535 -0.10463008 -0.5859476 1.0597172 1.9293298 -0.82313424 2.0816343 0.57621956 1.5033047 -1.1828393 0.60462004 2.0240877 1.5439384 0.14626433 2.2104187 0.38055792 -1.070775 -0.9019087 -0.56367975 -0.9723637 -1.2560163 -0.38277864 0.17883742 0.4054452 -0.20859069 0.84314466 1.2277995 -1.1006958 -1.3033404 1.5507948 -0.21343204 1.1482214 0.46936566 -0.28240016 -0.14601256 0.72727036 0.03460811 -1.1012269 -0.66181594 ",
    "rows": 20,
    "cols": 16
  },
  "bias_O": {
    "data": "-1.0840793 0.7878448 -0.13869482 -0.051639374 ",
    "rows": 4,
    "cols": 1
  },
  "weights_HO": {
    "data": "1.1199657 0.63087255 1.4500635 -0.0614959 -0.49630135 -1.3517435 -1.677769 0.47137615 -1.148309 -1.8170782 0.5568243 0.077101514 0.54582965 -0.26423487 0.69478244 -0.19538273 -1.1978158 -1.2066463 1.7116216 -0.37879854 0.24984062 0.5888599 -1.3327546 0.36380816 0.1938859 -2.3734825 0.3965404 -0.5130302 -0.5635369 -1.573381 -0.4630522 1.1801609 2.1100838 0.7429488 0.29314107 0.34320703 -1.7005023 -0.5444603 -1.0461743 0.50753355 -1.2062222 0.7177174 -0.46251756 0.37167922 1.2136108 -0.9899368 -1.1760157 1.1003592 1.580006 -0.32534918 -1.0982121 -2.0075676 0.86810106 0.29919314 -0.17619768 -0.55122906 0.46661624 0.24784061 -0.6184728 -0.3242657 -0.55916405 -0.20344667 0.53838396 -2.2632601 -0.0736307 -0.9565026 -0.09886752 -0.14729248 -1.0707241 -0.25484845 -0.7578649 1.4500589 0.6240015 0.24282534 -1.5888746 -0.1953978 1.23652 -1.124574 -0.2737136 1.0954969 ",
    "rows": 4,
    "cols": 20
  },
  "numOutputs": 4
}