{
  "numHiddens": 20,
  "bias_H": {
    "data": "-0.8278856 -0.7987736 0.43538862 -1.6120406 1.5957153 -0.7430333 0.037154093 -1.2009221 1.0380418 0.5192237 -0.12097295 0.16615911 -1.0442305 1.9649235 0.56462544 0.5837484 -0.9322375 -0.3920067 -0.5337877 1.160572 ",
    "rows": 20,
    "cols": 1
  },
  "numInputs": 16,
  "weights_IH": {
    "data": "1.2069722 -0.020730115 -0.16693214 0.38297302 0.010398582 0.56534547 -1.301307 -1.4583266 -0.5287382 0.014468323 -0.9543326 -0.43701336 -0.6732796 -1.0508544 0.42192063 0.87025917 -0.46479362 -0.8794104 0.09125002 0.70772946 0.12736079 -0.26699048 -0.4300863 1.0505252 -0.091891326 -0.87180835 -0.092927605 -0.47277236 -0.5351868 -1.3058512 -1.5733259 -0.2496953 -1.3860904 0.55128115 -1.0148443 -0.6564952 -0.98993325 0.52444243 1.3635114 -0.38927966 0.777163 0.49601236 -0.68350637 1.110339 0.43752533 -0.27573276 0.6685189 0.61848056 0.3085693 0.24800315 -0.6188248 0.2589316 -0.09331888 0.8604428 -0.9792351 0.41953418 0.971586 -1.8483529 -0.41194165 0.4171827 -0.80087715 -0.02500139 0.3887017 -1.6745055 -0.5383111 -0.06479814 -1.1861084 1.3245796 -1.181701 0.0666971 -0.6096922 0.25417247 -0.29930004 0.0053401776 -0.6861183 0.24537258 -0.022388637 -0.22515675 -0.24146746 -0.7677759 -1.3175395 0.06301993 -0.7530844 -1.0478638 -0.10122562 -0.112841874 -1.1142913 0.667059 0.73361856 -0.73456955 0.41072062 0.9921118 0.311018 0.32678935 -0.5819854 -0.4082919 0.557183 0.90464807 -0.17952108 -0.049267 0.6291099 0.30742884 0.62402827 -0.2669675 -0.66496116 0.54675984 -0.69188243 0.25682434 0.5305783 -0.041175418 0.9494266 1.1256716 0.72826254 -0.8433555 -0.20026068 0.049473245 0.6689053 0.17382513 -0.21236724 -0.8571476 -0.5050675 0.002264202 -0.78638566 -0.5716858 0.33723122 -0.5018579 1.054618 0.122014455 0.47733095 -0.041625835 0.25116515 -1.1001718 -0.012481689 0.5700327 -0.17915341 0.5476727 0.79655164 -0.44031784 -0.6432381 -0.37037796 0.1271407 -0.41434515 -0.3046202 -0.66295296 -0.6858933 -0.10664369 -1.1101902 0.24778876 0.7142218 -0.62868476 -0.90808594 0.8019774 0.7536061 -0.10787502 -1.2189518 0.4266372 0.48296285 -1.0358489 0.28611535 -0.8004564 0.620425 0.16861099 -0.6443898 0.26635438 -0.3505122 -1.0890626 -0.9713276 -0.7130838 -1.1803045 -1.0016437 -0.17624335 -1.123516 0.9453522 -0.6179893 0.76949894 0.3750202 0.8053046 -1.6599178 0.07134933 -0.17970733 0.31350332 -0.54752725 0.57282966 -0.78609383 -0.17573775 0.5575683 -0.8907497 -0.4085678 -0.116187826 0.5483497 0.686457 0.02980697 0.33937448 -0.4725761 -1.0933005 1.4252958 0.997401 0.61377996 -0.09968351 1.5944932 -0.54152906 0.51733387 -0.3247677 -1.0178975 -0.3721394 -0.5978283 0.6979301 0.028732061 -0.7650309 0.94385827 -0.35488966 0.9274235 -0.23429854 -0.46479714 0.30903813 0.5442586 -0.9204613 0.055083856 0.8478422 0.71060187 1.772191 -0.37480682 0.46349955 -0.17340939 1.063424 -0.20809977 0.5972411 0.31887746 0.110165656 0.9170165 -0.7238462 -0.24968347 1.0478714 -1.2044587 -0.4867107 1.0627813 -0.5465173 0.57062894 -0.6495779 -1.0452948 -1.1240959 -0.2630921 -0.6661374 -0.41769823 -0.16982542 -0.7377911 -0.4609115 0.72818446 -0.5210084 -0.43030578 0.90338004 -0.364883 0.4414829 -0.1612755 -0.51401645 0.74614275 0.66343975 0.75938 0.14615935 0.47862417 -0.17395277 -0.5114675 -0.8342955 -0.23591894 0.019098917 -0.6362751 0.11942504 1.1654458 -0.041318454 0.39788488 -0.46928665 1.7479975 0.48591518 0.3472219 -0.68613416 -0.48281038 0.6219975 0.88937527 0.91874456 -0.37368846 0.35424834 0.40954623 0.73233855 0.17110412 0.0037024347 -0.066977665 -0.43819192 0.6971843 0.34130055 -0.4022889 0.31881613 -0.695582 -0.7484116 -0.600709 -0.45907596 0.22177115 -0.6823884 0.5690613 -0.8105001 -0.6390862 -0.13554302 -0.9291809 0.60292524 1.6050386 -0.53638834 0.06387593 -1.3156221 0.4247353 -0.24152452 -0.30490392 0.6721213 0.6095756 1.2507302 0.74741846 -0.3765386 0.014013622 -0.4235173 0.40393823 -0.5415134 -0.96650916 ",
    "rows": 20,
    "cols": 16
  },
  "bias_O": {
    "data": "-1.3912159 0.9580124 -0.6911978 -0.28732547 ",
    "rows": 4,
    "cols": 1
  },
  "weights_HO": {
    "data": "-0.7801086 -0.84219134 1.3756856 -0.15824805 -1.7510483 0.5759707 0.6128594 0.67263454 -0.55256915 1.5952106 0.8412957 0.018248186 0.5231583 -0.52858716 -0.8417011 -0.62877077 1.0166986 -0.5133994 -0.31653336 -1.0248728 0.56791806 1.4476994 0.6855472 0.09773606 1.2242088 0.5057435 -0.26804063 -1.0958722 0.06573086 0.038375966 0.29804352 -0.40269384 1.1249986 -0.5765132 0.20517448 -1.0574526 -0.6073401 0.79503584 -0.4613073 -0.22072648 -0.095475376 -0.5133661 0.0022780374 1.3444998 0.90094095 -1.1474028 -1.0544626 0.22620909 -1.1412721 1.3167653 0.00942252 -0.3172365 -0.8369571 0.8193064 0.060982976 0.33867636 0.659725 -0.6233807 0.34722883 -0.53021646 1.7757671 -0.42253625 -0.59695584 -0.4863813 0.16575997 0.70213246 0.2412787 0.5384856 -0.55048835 -1.101328 -1.4320118 -0.2870096 0.76582754 -0.96676004 1.1740298 0.42071667 -0.60495085 0.6700733 -0.34594315 0.22493619 ",
    "rows": 4,
    "cols": 20
  },
  "numOutputs": 4
}