{
  "numInputs": 10,
  "weights_IH": {
    "data": "-0.94226503 0.126362 -0.4969114 0.23679118 -0.49268696 -0.18621413 -0.85841256 -0.46716982 0.14871593 0.16533537 -0.5722387 -0.6103916 -0.25434017 -0.3070717 0.9394581 -0.029780097 0.23549326 0.9630874 -0.18083178 -0.27764887 -0.27583763 -0.44597253 0.7874162 -0.55949783 0.6817394 0.5142864 -0.23163366 0.8812956 0.11543118 0.8053817 -0.055400547 0.118457355 0.96768725 0.6348039 0.5599693 0.52913105 -0.97976977 0.07198621 0.8538993 -0.9292318 -0.81946564 -0.11128193 0.13743596 0.33791187 -0.81451863 -0.8232033 -0.7891739 -0.21922883 -0.5223746 0.9695416 0.0743396 0.422562 -0.707297 0.83012336 0.19851157 0.43016642 0.8427253 0.16848525 0.49693173 -0.027256738 -0.11280426 -0.09003229 0.58416146 0.9454979 -0.044304118 -0.93743014 0.90331197 0.34090033 -0.9817115 0.7161133 0.8722709 -0.6827837 -0.5041116 -0.9445999 -0.6754831 -0.65570474 -0.83904487 -0.91921514 0.20991524 0.19913808 -0.30043584 -0.09658886 0.7728408 0.038843483 -0.5108827 0.71868634 -0.76057196 -0.7038879 -0.508344 -0.13959785 0.42269957 -0.27743557 0.07094308 -0.30076784 0.5937798 -0.45229334 0.0121833775 -0.42683214 -0.53064823 -0.57354176 -0.9435441 -0.5762171 -0.770031 -0.38427013 -0.14236717 0.36104155 0.11078819 0.6506228 0.4277653 0.99069846 -0.70426124 -0.31660476 -0.14238286 0.01216156 0.5981032 0.60342133 0.38223237 0.3310212 0.72493035 0.073945634 -0.29287496 -0.2707259 -0.20034026 -0.29848486 0.9188821 -0.0023987517 -0.7432119 0.69654727 -0.7253254 0.35788447 -0.7756392 -0.41142738 -0.30162477 -0.009522975 0.07452598 -0.17273284 -0.09331811 0.5295695 0.9493402 0.43046802 -0.25314736 0.5013226 -0.24153002 -0.7670543 -0.45164156 -0.14673626 0.39738423 0.74478114 -0.9260362 -0.04022421 -0.2509122 -0.8542224 0.0014494316 0.7873316 -0.5906023 -0.4775878 0.7753925 0.26445764 -0.9847811 -0.903587 -0.86087507 -0.6747619 -0.4427736 0.8991229 0.69019204 -0.41850242 0.12281755 -0.886608 -0.6016627 -0.8723689 0.14214806 0.13481683 0.18324283 -0.40662444 -0.6004796 0.296724 0.36995673 0.23364687 -0.17565458 0.15837187 0.12314405 0.58089423 0.39035225 0.27342594 -0.19300236 -0.015748484 -0.6713273 0.43583655 0.6258528 0.22109333 0.29988208 -0.4571695 -0.12875172 0.29043186 -0.82797116 0.41980323 -0.36561733 0.48391917 -0.38385877 -0.7805228 ",
    "rows": 20,
    "cols": 10
  },
  "bias_O": {
    "data": "-0.5333224 -0.22298113 0.5483509 0.84059983 -0.30963302 ",
    "rows": 5,
    "cols": 1
  },
  "weights_HO": {
    "data": "-0.061383504 -0.12095345 0.8576495 0.33777076 -0.09512575 -0.48953852 -0.38838246 -0.8186006 -0.21649668 0.64915144 0.4816305 0.5773088 0.4693504 -0.14443016 0.9166364 0.13161914 -0.537482 -0.22838928 0.19699556 -0.57416403 -0.85453147 0.9776629 0.8604426 -0.41933757 0.7178454 -0.33519298 -0.51938015 -0.5771744 -0.83641744 0.35854232 -0.22470559 0.25790757 -0.7794194 0.47926235 0.64832306 -0.91775006 -0.51857346 0.13602379 0.9588835 -0.040421013 -0.5256597 0.22398259 -0.43655637 -0.75692356 0.8567333 0.6321986 -0.5096082 0.3411992 0.69946647 0.16733876 0.98420703 -0.1943713 0.24810033 0.66013694 -0.4045011 0.662311 0.5181318 -0.35470402 0.49520048 -0.88837683 0.61441416 0.99184644 0.7556523 0.9912831 -0.23933741 0.9098044 -0.5317337 0.7256962 -0.3168517 -0.12970187 -0.7430873 -0.12198924 0.21338877 -0.84983677 -0.001872601 0.8762322 -0.24215552 -0.051668197 0.37368694 0.0023247865 -0.3716649 -0.6798288 -0.74194396 0.31330618 -0.8649081 0.5372545 0.88266104 -0.19407916 0.815066 -0.09612476 -0.77910066 0.8415531 0.20131528 -0.45205674 0.10224628 -0.3843779 0.13499556 0.2527312 0.19077381 -0.71422344 ",
    "rows": 5,
    "cols": 20
  },
  "hiddenLayers": [{
    "numHiddens": 20,
    "bias_H": {
      "data": "-0.2203145 0.0072656064 0.15285026 -0.7342132 -0.78152335 0.626987 -0.909259 0.14710896 -0.20253527 0.53262967 0.6332855 0.7276745 0.22498006 0.5741026 -0.04822254 0.70753646 0.84409845 -0.35252306 -0.59137136 -0.2464178 ",
      "rows": 20,
      "cols": 1
    }
  }],
  "numOutputs": 5
}