{
  "numInputs": 16,
  "weights_IH": {
    "data": "-0.51205844 -0.83869976 -0.5496382 0.049217943 -0.1669167 -0.45964748 -0.9850939 0.55884564 0.071789384 -0.58445597 -0.83304965 0.91899246 0.59890306 0.3661875 -0.41318762 0.5424531 -0.93236536 0.2893843 -0.6889421 -0.19893934 0.83004445 -0.4091235 0.14487907 -0.95912385 1.1576127 0.7205029 -0.34079283 0.5169983 -0.651037 0.39181358 0.013676003 -0.7585509 0.7830392 -0.78758526 -0.74270165 -0.44853288 -0.69940007 -0.26992255 0.42802432 0.15852405 -0.37561622 0.57340497 0.64484817 -0.65771604 -0.43405867 0.6424621 -0.7844372 -0.3103933 0.4795174 0.3871205 0.28805405 0.24963206 1.2207083 0.39706835 -0.8403497 1.0948176 -0.87657857 0.37765974 0.62349355 -0.5347411 0.6843942 -0.027364174 0.6368942 0.338593 0.6172142 -1.0896475 0.3294094 -0.28352606 -0.6609678 0.69103223 0.46710634 -0.16381088 0.5924743 0.74933535 -0.8400336 0.39143318 -0.057469837 -0.7740674 0.90500796 0.75627106 -0.6752478 -0.11056474 -0.5437682 -0.77492726 -0.61436427 0.03717772 0.016564239 1.1134045 0.68797815 0.52589566 0.6685862 0.06514561 -0.27646324 0.014435979 -0.011592743 -0.056688532 0.25546455 -0.8527513 -0.35966137 -0.033821452 0.7040171 -0.5710327 -0.42430437 0.24949528 0.93803877 0.67494607 -0.4759914 -0.36162776 0.0625443 -0.9206996 -0.4684503 -0.6947741 0.92990756 0.35591775 0.48040283 0.45400116 0.77850604 0.51016307 -0.65899396 0.4552524 0.45383185 0.23119897 -0.9935007 0.058914684 0.7173067 0.23321916 0.10028789 0.5068443 -0.69103605 0.5655429 0.37361175 0.76302594 -0.1768529 -0.26683563 -0.024989724 -0.56967354 0.029493254 -0.59939873 -0.39390317 0.2836312 0.50930035 0.66834354 0.29484904 0.0999652 0.93712455 -0.3898542 0.31029752 1.004909 -0.86017084 -0.049281523 0.57548285 -0.84215105 -1.1485386 0.37630838 -0.73761183 0.20745577 0.35061455 0.55744296 0.4674169 -0.84772325 -0.8216622 0.75957716 0.6182407 0.7678447 -0.20028947 -0.58303106 0.9464937 -0.55747616 0.5512839 -0.28043136 0.22400427 1.0941745 0.9636657 0.2334634 -0.052672014 -0.31579882 0.018030616 0.7327243 0.8969701 0.8692054 -0.6213394 0.29932496 -0.8208275 0.4474887 0.45444572 -0.58706564 0.5771048 -0.45445508 0.5627985 -0.48895794 -0.49374995 -0.5030021 0.78037256 0.35735855 -0.8944175 -0.16701481 0.1785241 -0.9697449 -0.0615056 -0.9639759 -0.93644965 -0.65368545 -0.47191215 -0.997301 -0.50468487 -0.9950849 -0.15783666 0.3176187 -0.5643146 -0.8459468 -0.9542356 -0.43960887 0.93418515 -1.0415955 -0.0040215664 0.64576095 0.84218884 -0.33713546 -0.5455705 -0.7471467 -0.53576803 0.07851991 -0.40685967 0.5351088 0.8266545 -0.7936693 3.5934825E-4 -0.775523 -0.6417555 0.66570663 -0.59787476 0.8850056 -0.41789395 0.93565136 0.35574183 -0.19571653 0.47890553 0.12358129 0.41466397 -0.52030367 0.7023144 0.9989441 0.12926905 0.37804085 -0.5911345 1.3727955 0.15019734 -1.2063711 -0.24644989 0.12890972 -0.6183009 -0.4344054 -0.055149734 0.46455872 0.12320531 -0.27714065 0.8545134 0.6090251 0.20961756 -1.0003631 -0.98423684 -0.25371033 0.9663517 0.8245958 -0.6371134 -0.35644513 0.862385 0.7638187 -0.17364812 -0.6604345 0.0887009 0.7655723 -0.3033272 -0.87586653 0.72885984 -0.5709865 -0.30742538 0.009882526 0.66669464 -0.19131972 1.0553421 -0.6976174 -0.17663005 0.49805367 0.14175282 0.13162613 0.091590546 -0.88133514 -0.14976482 -0.22412287 0.23466782 0.07891758 -0.08523746 0.06255072 0.3175894 -0.32357582 0.71436805 -0.32572958 0.44326943 0.9948071 -0.39163005 -0.851463 1.0148987 0.92386955 0.94687444 0.53859055 -0.45565176 0.902255 0.10982469 -0.06552526 0.10384643 0.5520817 0.6711434 0.097817674 -0.5984301 -0.2927283 0.2389486 0.77819437 -0.06756405 0.14423378 ",
    "rows": 20,
    "cols": 16
  },
  "weights_HH": [
    {
      "data": "-0.049115565 -0.43879434 0.77011424 0.5540348 0.60528487 -0.123282656 1.2890477 0.81842536 -0.22462575 0.3828149 0.7701068 0.7496854 -0.26988932 0.7285535 0.59950805 -0.95947707 -1.0193427 0.68276125 0.13789105 0.94420606 0.8645715 -0.48196995 0.9703272 0.3711308 -0.63769233 0.56881493 -1.2095449 -0.8316536 0.15443131 -0.7028713 0.79798216 -0.58279085 -0.31051055 -0.09456984 -0.19637609 -0.7679152 -0.009223466 -0.14410782 0.38052222 -0.99444723 0.17244254 -0.5441858 0.03579957 0.45017827 -0.664943 0.77125967 -0.18809533 0.18835789 0.13185485 -0.82551754 -1.252514 0.032866858 0.93641955 0.60385656 0.88529223 0.28713298 0.86512023 0.12621082 -0.08674696 1.0723126 -0.37584293 -0.8299279 -0.034103308 0.34674868 0.24731116 0.26175573 -0.04762785 0.14490302 -0.30531356 -0.17548303 -0.86059046 -0.45848846 -0.55527043 0.8384083 0.61835647 0.5103281 1.0190499 0.42302203 -0.24823165 0.5305069 0.11999217 0.17515673 0.076892674 -0.6923145 0.16267656 0.51443416 -0.044035032 -0.14398517 0.41691476 0.4752056 -0.37940526 0.901008 -0.4002947 0.04712409 -0.15100497 0.41421935 0.901557 0.6816671 0.8391291 -0.0053984486 -0.8060608 -0.34083104 0.9624193 -0.7199562 0.3021847 -0.3772717 0.49227634 0.18521938 -0.3564263 0.37649068 0.69262207 0.7748852 0.1118699 -0.9913352 0.03999495 -0.095707305 -0.8928426 -0.70171463 0.77027893 0.7992865 -0.52597654 0.7925675 0.7383901 -0.23592457 -0.09844454 0.24224526 0.35623002 -0.6866331 0.45902565 0.7406877 0.33530113 0.27431983 1.0201771 -0.7868794 -0.76442224 0.45584893 0.5500467 -0.28151792 0.027497832 -0.35099453 1.1158497 0.1526009 -0.006517116 -0.43305954 -0.6607771 -0.56994194 -0.6754394 -0.73387325 -0.39997888 0.5816889 -0.73769087 0.6047732 -0.8439655 0.21072087 -0.7813483 -0.0883118 -0.74616194 -0.75022143 0.8864962 0.05839369 -0.7887413 0.734666 0.530304 0.07279223 -0.3129334 -0.58738786 -0.47944358 -0.39856616 -0.6995831 -0.40987974 0.80061644 0.51715755 -0.3939995 -0.6256666 0.1489619 0.3620938 0.7481901 -0.9317451 -0.89495534 0.9193261 0.49585378 -0.42201898 -1.4571841 0.396783 -0.51936793 -0.5734001 -0.6110539 -0.43120396 -0.44420218 -0.35562247 -0.7306952 1.1903921 0.8613806 0.5638638 -0.20862062 0.028576743 -1.0476881 -0.116401955 0.20773943 0.37711927 -0.89838034 -0.004199587 -0.028991327 0.7976773 0.72528476 -0.5115275 0.8459926 -0.60733414 -0.16143662 -0.3242178 0.5588372 -0.95000964 1.0884515 0.14606935 -0.18533999 0.08208016 -0.26858386 -0.23634635 0.86605394 0.25811604 1.0523508 0.74376416 -0.87030053 -0.12037662 0.24561031 0.087301105 -0.12670931 -0.8816291 0.071498126 0.30082417 0.47778162 -0.49764588 0.95627576 0.83607197 -0.23997666 -0.03084457 0.5906498 0.34635204 -1.1450855 -0.9272702 -0.32586604 0.6330365 -0.4540617 -0.4109002 -0.72838396 -1.0898085 0.463598 -0.823472 -0.04389614 -0.027414449 0.49975568 -0.23869382 -0.85576296 0.11204272 -0.19934988 -0.12761672 -0.17075492 0.7385758 -0.35160008 -0.6219187 0.4168845 0.59198827 -0.46641856 0.031202123 -0.8934697 -0.5579293 0.89979005 -0.8930058 -0.24262695 0.41858906 0.20574406 0.69087106 -0.41016272 -0.89007694 -0.26374575 -0.6956298 -8.0188346E-4 -0.7191957 -0.32501185 0.19779904 -0.59987444 0.902311 0.37984106 0.2784523 -1.3761241 0.76092994 -0.1389881 0.3128166 -0.29969993 -0.35972723 0.7633804 0.22965795 -0.11290155 -0.27369684 -0.3274397 -0.7635337 -0.62140095 -0.9275406 -0.83358496 0.27395576 -0.48096538 0.46703494 0.32280934 0.484164 -0.3479359 0.6510126 -0.95746154 0.8811452 0.006331999 -0.5611783 -0.79964083 0.2635061 0.22294596 -0.22429717 0.75472647 0.07361047 -0.97305113 0.15531935 0.95725495 0.37829396 ",
      "rows": 16,
      "cols": 20
    },
    {
      "data": "-0.5490214 0.3073508 -0.16315478 -0.7440076 0.1738413 -0.20558932 -0.57408446 0.4308403 -0.21700652 -0.40975025 0.6558821 -0.24349247 0.68802834 -0.41151193 0.5008739 0.09310072 -0.35463357 -0.42938957 0.91612315 0.96195936 0.64974403 -0.57796633 -0.38160434 0.09680852 1.108495 -0.83938265 0.675883 0.05157509 0.8392031 -0.019274116 0.40393892 1.0831409 0.46495646 -0.5000214 -0.056623608 0.5403133 0.79695606 0.06818257 0.45557305 -0.64654726 0.81468034 0.4658134 -0.5361098 -0.703712 0.8120131 -0.082681775 0.15355767 -0.41153553 -0.41147366 0.2346992 0.5442944 -0.5804166 -0.7924189 0.3702738 0.38319817 0.18335803 0.8958553 -0.92903954 0.2588876 -0.6766535 -0.31460598 0.13355042 0.38831195 0.07748106 -0.8114317 -0.56456596 -1.0757546 1.0093104 0.47600245 -0.17852116 0.10888381 0.64265615 0.6248284 0.32338342 -0.9241271 0.97615474 -0.46929646 0.35469705 -0.8504847 -0.64925194 -0.22430994 0.91845316 -0.08614878 -0.043846276 0.30949238 -0.6672218 0.7015222 -0.7105296 -0.78199136 -0.27914175 -0.2109636 0.3096948 -0.9216205 -0.90457225 -0.6123762 -0.47943226 -0.4357037 -0.45315102 0.17998931 0.2900581 -0.84576315 -0.9900293 0.39181352 0.72077 0.8054799 -0.8204195 0.8741062 -0.47170162 -0.11996958 -0.33147296 0.23691118 0.9349068 -0.6036531 0.29531488 0.76520437 -0.4579178 -0.6133482 0.64713776 0.43822193 0.5593017 0.6184647 0.18848017 -0.76506525 -0.3899394 0.24657564 0.30683604 -0.2126627 -0.5203978 -0.64229864 -0.60032415 -0.24182831 0.44140485 0.4255487 -0.40833995 -0.41355464 0.81560504 0.0389568 0.6241423 0.34466377 -0.03139846 0.82312083 -0.6343477 -0.66564596 -0.28625765 -0.040083423 0.5249789 -0.5036668 -0.5982232 0.14564955 0.29120573 0.5508617 0.67404264 0.66576385 0.477766 0.72806865 0.48783505 0.2993943 -0.22112828 -0.5200421 0.8215382 ",
      "rows": 10,
      "cols": 16
    }
  ],
  "bias_O": {
    "data": "0.29878378 -0.70894796 -0.018263191 0.61975586 ",
    "rows": 4,
    "cols": 1
  },
  "weights_HO": {
    "data": "0.7228163 0.8248617 -0.05407123 0.123777784 -0.8075954 0.83411115 0.31793278 0.031170873 0.37672365 0.6418986 -0.6320793 0.46075666 0.8753443 0.5420558 0.5472748 -0.24625161 -0.39275873 0.6747126 0.6281693 -0.61971956 -0.61726433 0.4191455 0.9358618 0.45768678 -0.29858607 0.07731332 0.73180103 -0.04384841 0.68605036 -0.80509156 -0.612358 -0.4890174 -0.31973225 -0.07917525 0.019659279 0.34864825 0.94122976 0.20615217 0.3440072 0.7341103 ",
    "rows": 4,
    "cols": 10
  },
  "hiddenLayers": [
    {
      "numHiddens": 20,
      "bias_H": {
        "data": "-0.6309101 0.55071884 0.1697796 -0.42258835 -0.53795916 -0.023615383 -0.4290425 -0.18606311 0.9272306 0.20764577 -0.74035376 -0.8840742 -0.96513915 -0.3555817 0.43979928 -0.63131166 -0.30384037 -0.35776398 0.8189434 -0.4930541 ",
        "rows": 20,
        "cols": 1
      }
    },
    {
      "numHiddens": 16,
      "bias_H": {
        "data": "0.9371215 -0.03077214 -0.22172785 0.8733635 -0.8959289 -0.7987836 -0.06422785 0.023583632 0.7231854 0.13433738 0.47475877 0.71407044 -0.036049206 0.24737915 -0.68496406 0.56486005 ",
        "rows": 16,
        "cols": 1
      }
    },
    {
      "numHiddens": 10,
      "bias_H": {
        "data": "0.96471334 -0.07257731 0.48325825 0.28562286 -0.555178 0.9443103 -0.023074597 -0.0071646716 0.43855086 0.22843768 ",
        "rows": 10,
        "cols": 1
      }
    }
  ],
  "numOutputs": 4
}